/*
 * Copyright (c) 2026 EdgeImpulse Inc.
 *
 * Generated by Edge Impulse and licensed under the applicable Edge Impulse
 * Terms of Service. Community and Professional Terms of Service
 * (https://edgeimpulse.com/legal/terms-of-service) or Enterprise Terms of
 * Service (https://edgeimpulse.com/legal/enterprise-terms-of-service),
 * according to your product plan subscription (the “License”).
 *
 * This software, documentation and other associated files (collectively referred
 * to as the “Software”) is a single SDK variation generated by the Edge Impulse
 * platform and requires an active paid Edge Impulse subscription to use this
 * Software for any purpose.
 *
 * You may NOT use this Software unless you have an active Edge Impulse subscription
 * that meets the eligibility requirements for the applicable License, subject to
 * your full and continued compliance with the terms and conditions of the License,
 * including without limitation any usage restrictions under the applicable License.
 *
 * If you do not have an active Edge Impulse product plan subscription, or if use
 * of this Software exceeds the usage limitations of your Edge Impulse product plan
 * subscription, you are not permitted to use this Software and must immediately
 * delete and erase all copies of this Software within your control or possession.
 * Edge Impulse reserves all rights and remedies available to enforce its rights.
 *
 * Unless required by applicable law or agreed to in writing, the Software is
 * distributed on an "AS IS" BASIS, WITHOUT WARRANTIES OR CONDITIONS OF ANY KIND,
 * either express or implied. See the License for the specific language governing
 * permissions, disclaimers and limitations under the License.
 */
// Generated on: 21.04.2026 17:03:17

#include <stdio.h>
#include <stdlib.h>
#include "edge-impulse-sdk/tensorflow/lite/c/builtin_op_data.h"
#include "edge-impulse-sdk/tensorflow/lite/c/common.h"
#include "edge-impulse-sdk/tensorflow/lite/micro/micro_mutable_op_resolver.h"
#include "edge-impulse-sdk/porting/ei_classifier_porting.h"

#if EI_CLASSIFIER_PRINT_STATE
#if defined(__cplusplus) && EI_C_LINKAGE == 1
extern "C" {
    extern void ei_printf(const char *format, ...);
}
#else
extern void ei_printf(const char *format, ...);
#endif
#endif

#define STRINGIZE(x) #x
#define STRINGIZE_VALUE_OF(x) STRINGIZE(x)

#if defined (__GNUC__)  /* GNU compiler */
#define ALIGN(X) __attribute__((aligned(X)))
#define DEFINE_SECTION(x) __attribute__((section(x)))
#elif defined (_MSC_VER)
#define ALIGN(X) __declspec(align(X))
#elif defined (__TASKING__) /* TASKING Compiler */
#define ALIGN(X) __align(X)
#define DEFINE_SECTION(x) __attribute__((section(x)))
#elif defined (__ARMCC_VERSION) /* Arm Compiler */
#define ALIGN(X) __ALIGNED(x)
#define DEFINE_SECTION(x) __attribute__((section(x)))
#elif defined (__ICCARM__) /* IAR Compiler */
#define ALIGN(x) __attribute__((aligned(x)))
#define DEFINE_SECTION(x) __attribute__((section(x)))
#elif defined (__clang__) /* LLVM/Clang Compiler */
#define ALIGN(X) __ALIGNED(x)
#define DEFINE_SECTION(x) __attribute__((section(x)))
#endif

#if defined(EI_MODEL_SECTION) && (defined(__GNUC__) || defined(__clang__))
#define MODEL_SECTION(X) __attribute__((section(STRINGIZE_VALUE_OF(X))))
#else
#define MODEL_SECTION(X)
#endif

#ifndef EI_MAX_SCRATCH_BUFFER_COUNT
#ifndef CONFIG_IDF_TARGET_ESP32S3
#define EI_MAX_SCRATCH_BUFFER_COUNT 4
#else
#define EI_MAX_SCRATCH_BUFFER_COUNT 4
#endif // CONFIG_IDF_TARGET_ESP32S3
#endif // EI_MAX_SCRATCH_BUFFER_COUNT

#ifndef EI_MAX_OVERFLOW_BUFFER_COUNT
#define EI_MAX_OVERFLOW_BUFFER_COUNT 10
#endif // EI_MAX_OVERFLOW_BUFFER_COUNT

using namespace tflite;
using namespace tflite::ops;
using namespace tflite::ops::micro;

namespace {

#if defined(EI_CLASSIFIER_ALLOCATION_STATIC_HIMAX) || defined(EI_CLASSIFIER_ALLOCATION_STATIC_HIMAX_GNU)
constexpr int kTensorArenaSize = 1584;
#else
constexpr int kTensorArenaSize = 560;
#endif

#if defined(EI_CLASSIFIER_ALLOCATION_STATIC)
#if defined (EI_TENSOR_ARENA_LOCATION)
uint8_t tensor_arena[kTensorArenaSize] ALIGN(16) DEFINE_SECTION(STRINGIZE_VALUE_OF(EI_TENSOR_ARENA_LOCATION));
#else
uint8_t tensor_arena[kTensorArenaSize] ALIGN(16);
#endif
#elif defined(EI_CLASSIFIER_ALLOCATION_STATIC_HIMAX)
#pragma Bss(".tensor_arena")
uint8_t tensor_arena[kTensorArenaSize] ALIGN(16);
#pragma Bss()
#elif defined(EI_CLASSIFIER_ALLOCATION_STATIC_HIMAX_GNU)
uint8_t tensor_arena[kTensorArenaSize] ALIGN(16) __attribute__((section(".tensor_arena")));
#else
#define EI_CLASSIFIER_ALLOCATION_HEAP 1
uint8_t* tensor_arena = NULL;
#endif

static uint8_t* tensor_boundary;
static uint8_t* current_location;

template <int SZ, class T> struct TfArray {
  int sz; T elem[SZ];
};

enum used_operators_e {
  OP_FULLY_CONNECTED, OP_SOFTMAX,  OP_LAST
};

struct TensorInfo_t { // subset of TfLiteTensor used for initialization from constant memory
  TfLiteAllocationType allocation_type;
  void* data;
  TfLiteIntArray* dims;
  size_t bytes;
};

typedef struct {
  TfLiteTensor tensor;
  int16_t index;
} TfLiteTensorWithIndex;

typedef struct {
  TfLiteEvalTensor tensor;
  int16_t index;
} TfLiteEvalTensorWithIndex;

TfLiteContext ctx{};
static const int MAX_TFL_TENSOR_COUNT = 4;
static TfLiteTensorWithIndex tflTensors[MAX_TFL_TENSOR_COUNT];
static const int MAX_TFL_EVAL_COUNT = 4;
static TfLiteEvalTensorWithIndex tflEvalTensors[MAX_TFL_EVAL_COUNT];
TfLiteRegistration registrations[OP_LAST];

namespace g0 {
const TfArray<2, int> tensor_dimension0 = { 2, { 1,39 } };
const MODEL_SECTION(EI_MODEL_SECTION) ALIGN(16) float tensor_data1[10] = { -0.034440819174051285, 0.11401297152042389, -0.012848478741943836, -0.012466983869671822, 0.02402384951710701, 0.068819150328636169, 0.0079583954066038132, 0.046594694256782532, -0.034785840660333633, -0.044209964573383331, };
const TfArray<1, int> tensor_dimension1 = { 1, { 10 } };
const MODEL_SECTION(EI_MODEL_SECTION) ALIGN(16) float tensor_data2[20] = { -1.4027355973666999e-05, 0, 0.049954060465097427, 0.066100925207138062, -0.026199411600828171, 0.029461214318871498, 0.040198493748903275, -0.039970293641090393, 0.038825735449790955, 0, -0.031402382999658585, 0.062181465327739716, -0.0076138069853186607, 0.00064003636362031102, -0.034795194864273071, 0.066982366144657135, 0.034497078508138657, 0.13691848516464233, 0.022248929366469383, 0.063691332936286926, };
const TfArray<1, int> tensor_dimension2 = { 1, { 20 } };
const MODEL_SECTION(EI_MODEL_SECTION) ALIGN(8) float tensor_data3[2] = { -0.045270897448062897, 0.045270930975675583, };
const TfArray<1, int> tensor_dimension3 = { 1, { 2 } };
const MODEL_SECTION(EI_MODEL_SECTION) ALIGN(16) float tensor_data4[20*39] = { 
  -0.037586666643619537, -0.08099006861448288, -0.069148637354373932, 0.26741129159927368, 0.10573507100343704, 0.1300337016582489, 0.06783323734998703, -0.22139893472194672, 0.086217030882835388, -0.2679140567779541, -0.025488303974270821, 0.097189277410507202, -0.29297491908073425, -0.23964095115661621, -0.032060422003269196, 0.26425814628601074, 0.086413092911243439, 0.24352635443210602, -0.17295484244823456, -0.17123967409133911, 0.25272092223167419, -0.099337264895439148, 0.24439862370491028, 0.040711082518100739, -0.30168619751930237, 0.18536637723445892, -0.18787664175033569, -0.12068673223257065, -0.19219604134559631, -0.27041631937026978, 0.094969175755977631, 0.082232773303985596, 0.17290967702865601, -0.2739013135433197, -0.31028157472610474, 0.12057184427976608, -0.20741406083106995, 0.21510511636734009, -0.040866125375032425, 
  -0.30873838067054749, -0.021184921264648438, 0.25657212734222412, 0.039397656917572021, -0.09235776960849762, 0.052269130945205688, 0.09853169322013855, 0.094210952520370483, 0.13782510161399841, 0.28930234909057617, -0.20153316855430603, 0.13103783130645752, 0.041992813348770142, 0.057746410369873047, 0.19240546226501465, -0.16865196824073792, 0.24439781904220581, 0.15468442440032959, 0.3178824782371521, -0.18789750337600708, -0.052646547555923462, -0.031061559915542603, 0.25848013162612915, -0.059618204832077026, 0.15976807475090027, 0.15219295024871826, -0.05622592568397522, 0.22718971967697144, -0.075883716344833374, -0.23083445429801941, -0.049289047718048096, 0.29307246208190918, 0.27104336023330688, 0.30389958620071411, 0.21434664726257324, -0.098953142762184143, -0.25012636184692383, -0.028933078050613403, 0.082270830869674683, 
  0.29515534639358521, 0.049753699451684952, -0.33002138137817383, -0.19678163528442383, 0.12051838636398315, -0.12078386545181274, 0.23653902113437653, 0.29666623473167419, 0.32370772957801819, -0.011241032741963863, -0.22533203661441803, 0.060693934559822083, -0.21880170702934265, 0.24612243473529816, -0.27291235327720642, 0.15753397345542908, 0.11540746688842773, 0.15264515578746796, 0.044228114187717438, 0.17664690315723419, 0.33907720446586609, -0.27338072657585144, 0.18744820356369019, -0.24139957129955292, 0.04036223515868187, -0.076100908219814301, 0.39499720931053162, 0.11017191410064697, -0.10741535574197769, -0.22561760246753693, -0.17699404060840607, 0.20681841671466827, 0.16837519407272339, -0.22183047235012054, -0.05909997969865799, -0.10246793180704117, -0.27737995982170105, -0.02951619029045105, 0.17046692967414856, 
  -0.19376048445701599, 0.22618414461612701, -0.23498179018497467, 0.25448179244995117, -0.050400171428918839, 0.25030195713043213, 0.035616770386695862, 0.36862751841545105, 0.2196199893951416, -0.29189220070838928, 0.18993072211742401, 0.18604035675525665, 0.087491050362586975, 0.25937464833259583, 0.075962424278259277, -0.13445648550987244, -0.17355102300643921, -0.21321997046470642, 0.16942904889583588, 0.26029917597770691, -0.13857351243495941, 0.18777194619178772, -0.25272199511528015, -0.18004785478115082, 0.12475733458995819, 0.095416828989982605, -0.15855787694454193, 0.13598959147930145, 0.31618767976760864, 0.26883134245872498, -0.19635015726089478, 0.064695023000240326, 0.19894720613956451, -0.20521117746829987, 0.12676477432250977, -0.025712624192237854, 0.24258007109165192, -0.36885043978691101, -0.0061490917578339577, 
  0.23250360786914825, 0.041645817458629608, 0.07935747504234314, -0.22559580206871033, -0.27660050988197327, -0.21162267029285431, 0.28918731212615967, -0.049483038485050201, -0.12207324057817459, 0.21195413172245026, -0.065643273293972015, 0.084408842027187347, -0.17103500664234161, -0.16389437019824982, -0.19538787007331848, 0.19517369568347931, 0.15497098863124847, 0.17891240119934082, -0.0011696446454152465, -0.047142025083303452, -0.008305664174258709, 0.31631803512573242, -0.036812044680118561, -0.023622363805770874, -0.074028514325618744, 0.04050762951374054, 0.20331068336963654, 0.23634898662567139, -0.26493218541145325, -0.27708861231803894, 0.1174367293715477, -0.17755146324634552, 0.30657017230987549, -0.19992744922637939, -0.07502080500125885, -0.12833189964294434, -0.071674719452857971, -0.26398763060569763, 0.093437552452087402, 
  -0.080105677247047424, 0.23728321492671967, 0.028064196929335594, 0.012458372861146927, -0.0841808021068573, -0.27047601342201233, 0.0095180533826351166, 0.29266631603240967, -0.14503002166748047, 0.045342583209276199, -0.31773585081100464, -0.13775952160358429, -0.33505639433860779, 0.16465093195438385, 0.049876119941473007, -0.038013223558664322, -0.25926116108894348, 0.11128527671098709, -0.11805737763643265, 0.0067573296837508678, -0.26837706565856934, -0.28421637415885925, -0.054310780018568039, -0.18208546936511993, 0.20604541897773743, -0.1065799817442894, 0.11128833144903183, -0.06332685798406601, -0.16003496944904327, 0.33788383007049561, -0.037709787487983704, -0.056966431438922882, 0.21976518630981445, -0.21694670617580414, 0.04760231077671051, -0.31855946779251099, 0.18910905718803406, -0.20846141874790192, 0.10309445112943649, 
  0.19782707095146179, -0.047862011939287186, -0.15540674328804016, -0.15048258006572723, -0.216828852891922, -0.27558210492134094, -0.070805422961711884, 0.25304657220840454, -0.08663623034954071, 0.046320904046297073, 0.0050450563430786133, -0.008072342723608017, 0.019287927076220512, 0.22720849514007568, 0.083726316690444946, -0.093205451965332031, -0.11651889234781265, -0.1884920597076416, 0.34084147214889526, 0.27617710828781128, -0.12402293831110001, 0.082412250339984894, -0.12418950349092484, 0.21507586538791656, -0.11724496632814407, -0.020469328388571739, 0.36072841286659241, -0.29924550652503967, 0.29063677787780762, 0.090355567634105682, 0.1842460036277771, -0.28704559803009033, 0.016326885670423508, -0.027526017278432846, -0.2390701025724411, 0.19130194187164307, -0.28880798816680908, 0.12503895163536072, -0.26074102520942688, 
  0.19101466238498688, -0.34335902333259583, 0.13117051124572754, 0.22642621397972107, 0.23278152942657471, 0.048834271728992462, 0.045239612460136414, 0.08875565230846405, -0.13935019075870514, 0.26725688576698303, -0.02826225571334362, 0.34040731191635132, -0.073634371161460876, 0.082673355937004089, -0.17596948146820068, -0.26274138689041138, -0.14445671439170837, -0.12880329787731171, -0.25364062190055847, 0.25429752469062805, 0.21605518460273743, -0.24776625633239746, -0.14034560322761536, 0.029307082295417786, -0.033026982098817825, 0.33970922231674194, -0.12851567566394806, 0.099374279379844666, -0.33498913049697876, -0.087500967085361481, 0.099093809723854065, 0.33037447929382324, 0.10559593141078949, -0.23782424628734589, -0.076833203434944153, -0.25415310263633728, -0.01748243160545826, 0.12476020306348801, 0.253501296043396, 
  0.21192625164985657, 0.33997717499732971, 0.15023699402809143, -0.014609392732381821, -0.29541146755218506, 0.23460988700389862, 0.0016889479011297226, -0.14835932850837708, 0.01232319138944149, -0.074035815894603729, -0.017624726518988609, 0.15472997725009918, 0.14457859098911285, -0.076487332582473755, 0.014150422997772694, -0.17342744767665863, 0.1687677800655365, -0.18426203727722168, 0.3503703773021698, 0.10222502052783966, 0.32747411727905273, 0.23913878202438354, 0.24704061448574066, 0.090806633234024048, 0.15593867003917694, 0.16239765286445618, 0.26492685079574585, -0.063684269785881042, 0.29585692286491394, -0.23655813932418823, 0.14199323952198029, -0.33779212832450867, -0.084400773048400879, -0.04305698350071907, -0.29766777157783508, -0.12786294519901276, -0.31437051296234131, 0.22741380333900452, -0.24766331911087036, 
  -0.2643122673034668, 0.14192217588424683, -0.2686181366443634, -0.020538359880447388, -0.18375830352306366, 0.18780434131622314, -0.28830024600028992, -0.0019323229789733887, -0.17321290075778961, -0.31850439310073853, -0.27018308639526367, -0.21720412373542786, -0.31749311089515686, -0.082162484526634216, -0.20199376344680786, 0.24749106168746948, -0.034362137317657471, 0.18501812219619751, 0.22300946712493896, -0.20184239745140076, -0.065811991691589355, 0.19990050792694092, 0.061738789081573486, 0.2949984073638916, 0.31775665283203125, 0.21343272924423218, 0.016790717840194702, 0.093595623970031738, -0.0087518990039825439, 0.14314666390419006, -0.1392892450094223, -0.089711666107177734, -0.23072376847267151, -0.0096452832221984863, 0.222068190574646, 0.096536189317703247, 0.21398776769638062, 0.23922497034072876, -0.045791923999786377, 
  0.27266830205917358, 0.044802241027355194, 0.17722412943840027, -0.33524203300476074, -0.22354377806186676, -0.15652590990066528, 0.15425682067871094, 0.022769054397940636, -0.043505631387233734, 0.10442730784416199, -0.2190508246421814, 0.12023346871137619, 0.10790009051561356, -0.27637562155723572, 0.17922812700271606, -0.15153419971466064, -0.037422031164169312, 0.023814544081687927, 0.082691997289657593, 0.039783407002687454, -0.29407653212547302, 0.13766548037528992, -0.26796108484268188, 0.27628549933433533, 0.29274755716323853, -0.025745267048478127, -0.1815420538187027, -0.071764320135116577, 0.1938425749540329, 0.18425878882408142, -0.26860755681991577, -0.21766582131385803, -0.21798458695411682, -0.038210928440093994, 0.34724166989326477, 0.31040987372398376, -0.058092482388019562, -0.21506878733634949, -0.21583245694637299, 
  0.018720604479312897, 0.16937606036663055, 0.22325563430786133, -0.033280007541179657, -0.26388010382652283, -0.22013425827026367, 0.37562966346740723, -0.062763310968875885, 0.29248350858688354, -0.08963342010974884, 0.20651593804359436, 0.22766600549221039, 0.13884711265563965, 0.34921985864639282, -0.17708897590637207, 0.085110493004322052, -0.067237794399261475, -0.16805329918861389, 0.34605857729911804, 0.068257600069046021, -0.015246585942804813, -0.017652086913585663, 0.25128611922264099, -0.048493560403585434, 0.034191984683275223, 0.062779635190963745, 0.26262027025222778, 0.10753002017736435, 0.36792027950286865, 0.18370786309242249, -0.07669404149055481, -0.12668105959892273, -0.043871365487575531, -0.19116346538066864, 0.024075873196125031, -0.13175126910209656, -0.28146094083786011, 0.016668563708662987, 0.01984877698123455, 
  -0.11815237998962402, -0.29048651456832886, 0.0065979836508631706, -0.10967489331960678, 0.18268558382987976, -0.26238524913787842, -0.17843550443649292, -0.29761525988578796, -0.24615330994129181, 0.16115245223045349, -0.063922271132469177, -0.28361085057258606, 0.087097734212875366, 0.18983727693557739, -0.12634825706481934, 0.23789680004119873, 0.031299255788326263, -0.11744268238544464, 0.27304890751838684, -0.075615614652633667, 0.15817323327064514, 0.18745569884777069, -0.18864086270332336, 0.20662571489810944, 0.16776889562606812, -0.091041773557662964, 0.03039596788585186, -0.13759590685367584, 0.29003468155860901, -0.092271722853183746, -0.14435693621635437, 0.084008887410163879, -0.2967914342880249, 0.29294127225875854, 0.20428290963172913, 0.20471207797527313, 0.2638472318649292, -0.19935496151447296, -0.25872805714607239, 
  0.10052736848592758, -0.33067131042480469, -0.19219018518924713, -0.02004639059305191, 0.2747262716293335, 0.31810015439987183, -0.25548401474952698, 0.30368271470069885, -0.03504423052072525, 0.082499854266643524, 0.067549131810665131, 0.091151095926761627, 0.28696408867835999, 0.1097312793135643, -0.03938911110162735, -0.2402748167514801, -0.3234214186668396, -0.061596184968948364, -0.24593549966812134, -0.10714303702116013, -0.23227474093437195, -0.241287961602211, -0.0085009559988975525, -0.09614139050245285, -0.12851603329181671, -0.30998489260673523, -0.188935786485672, 0.29430690407752991, -0.030282411724328995, 0.018069762736558914, 0.084311880171298981, -0.3015572726726532, -0.2299170196056366, -0.29882106184959412, -0.037942960858345032, 0.082843378186225891, 0.14814496040344238, -0.017859824001789093, 0.26035857200622559, 
  0.24818034470081329, -0.30367487668991089, -0.13517101109027863, 0.041193775832653046, 0.041124731302261353, -0.21910879015922546, -0.17198380827903748, 0.080552473664283752, 0.12557964026927948, 0.084999822080135345, 0.28753122687339783, -0.3297659158706665, -0.28766945004463196, 0.26635032892227173, -0.27492037415504456, -0.08414827287197113, -0.2877051830291748, 0.06806618720293045, 0.14850868284702301, -0.28057205677032471, 0.2406318187713623, 0.28486147522926331, -0.17673054337501526, 0.21724194288253784, -0.30679953098297119, -0.19848376512527466, -0.086069256067276001, -0.23018704354763031, 0.2111084908246994, -0.098724052309989929, 0.34128955006599426, -0.17764025926589966, -0.15685378015041351, 0.18244814872741699, -0.056281056255102158, -0.21752072870731354, -0.25156456232070923, 0.074442990124225616, 0.25618171691894531, 
  0.070648595690727234, 0.32632729411125183, -0.31687179207801819, -0.22796922922134399, -0.33686727285385132, 0.16000813245773315, 0.034069936722517014, 0.12229946255683899, 0.1930527538061142, 0.1308692991733551, -0.061346143484115601, 0.071381561458110809, -0.22463324666023254, 0.21539394557476044, 0.092370137572288513, 0.17341096699237823, 0.11576483398675919, 0.067644722759723663, 0.18172799050807953, 0.25324633717536926, -0.19067901372909546, 0.33939191699028015, -0.29010891914367676, 0.085007317364215851, 0.01343022845685482, -0.055288482457399368, -0.072145767509937286, -0.1634766012430191, -0.0029462152160704136, -0.10921219736337662, 0.026192644611001015, -0.17228838801383972, -0.17087596654891968, 0.10756423324346542, -0.082588382065296173, 0.005280607845634222, -0.062760151922702789, -0.35633224248886108, 0.016718888655304909, 
  0.055946003645658493, -0.15615507960319519, -0.16538313031196594, -0.010889522731304169, 0.23586386442184448, -0.042011778801679611, -0.073323518037796021, -0.20054483413696289, 0.13908103108406067, -0.2583681046962738, -0.25836470723152161, -0.083203375339508057, 0.090571373701095581, 0.20534057915210724, -0.1575489342212677, 0.0734882652759552, -0.24980680644512177, -0.18643172085285187, 0.16896471381187439, -0.070280864834785461, -0.24020873010158539, -0.16020360589027405, 0.13807706534862518, -0.12131692469120026, 0.14309811592102051, -0.091314554214477539, -0.0032751474063843489, 0.20065918564796448, -0.18307474255561829, 0.23007597029209137, 0.089251399040222168, 0.0070848641917109489, 0.26034358143806458, -0.17612664401531219, -0.084216415882110596, -0.1565202921628952, 0.098197184503078461, -0.26851987838745117, -0.13977423310279846, 
  0.074298903346061707, 0.26615282893180847, 0.14481957256793976, 0.35867083072662354, 0.26240125298500061, 0.018417838960886002, -0.0074015152640640736, 0.34531405568122864, 0.11331489682197571, -0.17478559911251068, -0.27052026987075806, 0.14144974946975708, -0.26650199294090271, 0.35143521428108215, -0.32659891247749329, -0.23275904357433319, -0.075872793793678284, 0.018099648877978325, 0.39271524548530579, -0.078315041959285736, 0.21384322643280029, -0.21634450554847717, -0.36583098769187927, 0.16340699791908264, -0.32168111205101013, -0.39602655172348022, -0.025952622294425964, 0.028649702668190002, 0.049327723681926727, -0.029752332717180252, -0.075176946818828583, -0.38403666019439697, -0.13252837955951691, -0.07827894389629364, -0.11597231775522232, 0.15597398579120636, 0.15606960654258728, -0.31697541475296021, 0.076667092740535736, 
  -0.27163282036781311, -0.11685483902692795, 0.14564856886863708, -0.28672724962234497, 0.1758970320224762, 0.0025380111765116453, -0.23062087595462799, -0.053942941129207611, -0.032749451696872711, -0.1350189745426178, -0.31638386845588684, -0.14487205445766449, -0.29435780644416809, -0.2220759391784668, -0.20059612393379211, -0.18732185661792755, 0.043385222554206848, -0.16279162466526031, -0.19752728939056396, 0.097088590264320374, -0.1815064400434494, 0.23854994773864746, -0.19624270498752594, 0.22546663880348206, -0.16092181205749512, -0.29960408806800842, -0.0031526293605566025, -0.099203765392303467, -0.29764720797538757, -0.19652961194515228, 0.1689879298210144, -0.16076336801052094, -0.22476945817470551, -0.30872410535812378, 0.28919091820716858, 0.22677968442440033, 0.064421027898788452, -0.23648686707019806, -0.26750996708869934, 
  0.052082672715187073, 0.30764845013618469, -0.038265492767095566, -0.092435628175735474, -0.065136156976222992, -0.041602142155170441, 0.15701673924922943, 0.023912999778985977, 0.29283171892166138, 0.20247980952262878, -0.31678673624992371, 0.18696853518486023, 0.15557815134525299, 0.059811491519212723, -0.075147569179534912, -0.18750816583633423, 0.057439789175987244, -0.32312822341918945, -0.10508127510547638, 0.14971907436847687, -0.065650112926959991, -0.24346823990345001, 0.19770790636539459, -0.31270229816436768, -0.085467316210269928, -0.054473232477903366, -0.14109531044960022, -0.17609445750713348, 0.15820802748203278, 0.3111969530582428, -0.25759881734848022, -0.014663073234260082, 0.20983953773975372, -0.25986224412918091, -0.036953363567590714, 0.048944223672151566, -0.353046715259552, 0.0048577827401459217, -0.044470351189374924, 
};
const TfArray<2, int> tensor_dimension4 = { 2, { 20,39 } };
const MODEL_SECTION(EI_MODEL_SECTION) ALIGN(16) float tensor_data5[10*20] = { 
  0.16956102848052979, -0.29567396640777588, -0.29669284820556641, 0.0025482322089374065, 0.39065858721733093, 0.071232996881008148, 0.39802098274230957, -0.42577290534973145, -0.062017284333705902, -0.19483354687690735, 0.063708193600177765, 0.020074138417840004, 0.25005105137825012, 0.44159087538719177, 0.18734030425548553, -0.36443448066711426, 0.0087817329913377762, -0.18494358658790588, -0.25564846396446228, 0.049911342561244965, 
  -0.23091965913772583, -0.43652644753456116, 0.38753408193588257, 0.41999000310897827, 0.25279399752616882, -0.081878587603569031, -0.059756230562925339, -0.30663377046585083, -0.21315942704677582, 0.069873809814453125, -0.14372536540031433, -0.038931291550397873, 0.26829132437705994, 0.15257588028907776, 0.35813930630683899, 0.48614069819450378, -0.070626087486743927, 0.31856781244277954, -0.31926253437995911, 0.036491304636001587, 
  -0.086540102958679199, -0.36983108520507812, -0.024370349943637848, 0.3892873227596283, -0.18503651022911072, -0.22609998285770416, -0.14885343611240387, 0.067342802882194519, -0.17024281620979309, -0.043710947036743164, 0.11197523772716522, 0.17908555269241333, -0.088252238929271698, -0.3428688645362854, -0.062337033450603485, -0.27166047692298889, 0.31007868051528931, -0.38149538636207581, -0.38322222232818604, -0.3244117796421051, 
  0.24678222835063934, 0.051235824823379517, 0.3334614634513855, -0.023992728441953659, -0.24040287733078003, 0.31515875458717346, -0.24409067630767822, -0.19051831960678101, -0.13912834227085114, 0.28100210428237915, 0.35857567191123962, 0.14602509140968323, -0.27267035841941833, -0.3430706262588501, 0.00086773798102512956, -0.21247917413711548, -0.084683828055858612, -0.2033303827047348, 0.42611488699913025, 0.28742384910583496, 
  -0.1443859338760376, 0.22864800691604614, -0.36017593741416931, -0.22322280704975128, -0.30514171719551086, 0.29595786333084106, -0.12204728275537491, 0.094775773584842682, -0.38655960559844971, 0.23458927869796753, 0.34225979447364807, 0.13300563395023346, -0.067429490387439728, 0.2108854204416275, 0.12221841514110565, -0.44862037897109985, -0.16369812190532684, 0.55625289678573608, 0.30603083968162537, 0.18623334169387817, 
  -0.22545725107192993, 0.26865863800048828, -0.15431579947471619, 0.28299164772033691, 0.16837649047374725, -0.12880505621433258, 0.062209233641624451, 0.32296526432037354, -0.35934185981750488, -0.17979496717453003, 0.32248365879058838, 0.3777172863483429, -0.164679154753685, 0.28253719210624695, -0.046626385301351547, 0.060464534908533096, -0.028024978935718536, 0.47513043880462646, -0.29796168208122253, 0.16909648478031158, 
  0.373748779296875, 0.18086844682693481, -0.23191429674625397, -0.32335218787193298, 0.32038691639900208, 0.32248857617378235, 0.041220992803573608, -0.14415302872657776, -0.12239015102386475, 0.0096309185028076172, 0.22487394511699677, 0.13374464213848114, -0.2670566737651825, -0.14038011431694031, 0.055164121091365814, -0.092899985611438751, 0.24587836861610413, 0.086854755878448486, -0.040340274572372437, -0.15442289412021637, 
  -0.079328693449497223, 0.34791058301925659, 0.24117329716682434, 0.3043651282787323, -0.053623028099536896, 0.31197258830070496, 0.38568323850631714, -0.39801454544067383, 0.49212256073951721, -0.11473512649536133, -0.19709295034408569, 0.51060789823532104, 0.24747836589813232, -0.11275053769350052, -0.3666260838508606, 0.27127626538276672, 0.31846803426742554, 0.12314648926258087, 0.030068391934037209, 0.38848015666007996, 
  0.20672145485877991, 0.15565967559814453, 0.16391663253307343, 0.084011539816856384, 0.30580610036849976, 0.087683387100696564, -0.44983169436454773, -0.11345469206571579, -0.15405130386352539, 0.047066181898117065, 0.34479984641075134, 0.027268880978226662, -0.034208904951810837, -0.40212592482566833, -0.15326307713985443, 0.31469994783401489, -0.38343575596809387, 0.15773989260196686, -0.21334041655063629, -0.17594364285469055, 
  0.1885688453912735, -0.27388951182365417, -0.11983322352170944, -0.072595149278640747, 0.31595277786254883, 0.40223371982574463, -0.12418772280216217, 0.015090759843587875, 0.24329470098018646, -0.35648933053016663, -0.25724712014198303, 0.11187704652547836, -0.27918091416358948, -0.19813001155853271, 0.19750717282295227, -0.14674663543701172, -0.060740116983652115, 0.23806139826774597, 0.030045447871088982, 0.2325127124786377, 
};
const TfArray<2, int> tensor_dimension5 = { 2, { 10,20 } };
const MODEL_SECTION(EI_MODEL_SECTION) ALIGN(16) float tensor_data6[2*10] = { 
  0.40837273001670837, -0.78024774789810181, 0.39203807711601257, 0.62838423252105713, 0.77117788791656494, -0.63866961002349854, -0.22664898633956909, -0.65171390771865845, 0.020733458921313286, 0.48011934757232666, 
  0.38800862431526184, 0.29175031185150146, -0.11603113263845444, -0.16090987622737885, -0.61864864826202393, 0.19252775609493256, -0.6745750904083252, 0.36328989267349243, -0.49272167682647705, 0.215513676404953, 
};
const TfArray<2, int> tensor_dimension6 = { 2, { 2,10 } };
const TfArray<2, int> tensor_dimension7 = { 2, { 1,20 } };
const TfArray<2, int> tensor_dimension8 = { 2, { 1,10 } };
const TfArray<2, int> tensor_dimension9 = { 2, { 1,2 } };
const TfLiteFullyConnectedParams opdata0 = { kTfLiteActRelu, kTfLiteFullyConnectedWeightsFormatDefault, false, false };
const TfArray<3, int> inputs0 = { 3, { 0,4,2 } };
const TfArray<1, int> outputs0 = { 1, { 7 } };
const TfLiteFullyConnectedParams opdata1 = { kTfLiteActRelu, kTfLiteFullyConnectedWeightsFormatDefault, false, false };
const TfArray<3, int> inputs1 = { 3, { 7,5,1 } };
const TfArray<1, int> outputs1 = { 1, { 8 } };
const TfLiteFullyConnectedParams opdata2 = { kTfLiteActNone, kTfLiteFullyConnectedWeightsFormatDefault, false, false };
const TfArray<3, int> inputs2 = { 3, { 8,6,3 } };
const TfArray<1, int> outputs2 = { 1, { 9 } };
const TfLiteSoftmaxParams opdata3 = { 1 };
const TfArray<1, int> inputs3 = { 1, { 9 } };
const TfArray<1, int> outputs3 = { 1, { 10 } };
};

TensorInfo_t tensorData[] = {
{ kTfLiteArenaRw, (int32_t*)(tensor_arena + 0), (TfLiteIntArray*)&g0::tensor_dimension0, 156, },
{ kTfLiteMmapRo, (int32_t*)g0::tensor_data1, (TfLiteIntArray*)&g0::tensor_dimension1, 40, },
{ kTfLiteMmapRo, (int32_t*)g0::tensor_data2, (TfLiteIntArray*)&g0::tensor_dimension2, 80, },
{ kTfLiteMmapRo, (int32_t*)g0::tensor_data3, (TfLiteIntArray*)&g0::tensor_dimension3, 8, },
{ kTfLiteMmapRo, (int32_t*)g0::tensor_data4, (TfLiteIntArray*)&g0::tensor_dimension4, 3120, },
{ kTfLiteMmapRo, (int32_t*)g0::tensor_data5, (TfLiteIntArray*)&g0::tensor_dimension5, 800, },
{ kTfLiteMmapRo, (int32_t*)g0::tensor_data6, (TfLiteIntArray*)&g0::tensor_dimension6, 80, },
{ kTfLiteArenaRw, (int32_t*)(tensor_arena + 160), (TfLiteIntArray*)&g0::tensor_dimension7, 80, },
{ kTfLiteArenaRw, (int32_t*)(tensor_arena + 0), (TfLiteIntArray*)&g0::tensor_dimension8, 40, },
{ kTfLiteArenaRw, (int32_t*)(tensor_arena + 48), (TfLiteIntArray*)&g0::tensor_dimension9, 8, },
{ kTfLiteArenaRw, (int32_t*)(tensor_arena + 0), (TfLiteIntArray*)&g0::tensor_dimension9, 8, },
};

#ifndef TF_LITE_STATIC_MEMORY
TfLiteNode tflNodes[4] = {
{ (TfLiteIntArray*)&g0::inputs0, (TfLiteIntArray*)&g0::outputs0, (TfLiteIntArray*)&g0::inputs0, nullptr, nullptr, const_cast<void*>(static_cast<const void*>(&g0::opdata0)), nullptr, 0, },
{ (TfLiteIntArray*)&g0::inputs1, (TfLiteIntArray*)&g0::outputs1, (TfLiteIntArray*)&g0::inputs1, nullptr, nullptr, const_cast<void*>(static_cast<const void*>(&g0::opdata1)), nullptr, 0, },
{ (TfLiteIntArray*)&g0::inputs2, (TfLiteIntArray*)&g0::outputs2, (TfLiteIntArray*)&g0::inputs2, nullptr, nullptr, const_cast<void*>(static_cast<const void*>(&g0::opdata2)), nullptr, 0, },
{ (TfLiteIntArray*)&g0::inputs3, (TfLiteIntArray*)&g0::outputs3, (TfLiteIntArray*)&g0::inputs3, nullptr, nullptr, const_cast<void*>(static_cast<const void*>(&g0::opdata3)), nullptr, 0, },
};
#else
TfLiteNode tflNodes[4] = {
{ (TfLiteIntArray*)&g0::inputs0, (TfLiteIntArray*)&g0::outputs0, (TfLiteIntArray*)&g0::inputs0, nullptr, const_cast<void*>(static_cast<const void*>(&g0::opdata0)), nullptr, 0, },
{ (TfLiteIntArray*)&g0::inputs1, (TfLiteIntArray*)&g0::outputs1, (TfLiteIntArray*)&g0::inputs1, nullptr, const_cast<void*>(static_cast<const void*>(&g0::opdata1)), nullptr, 0, },
{ (TfLiteIntArray*)&g0::inputs2, (TfLiteIntArray*)&g0::outputs2, (TfLiteIntArray*)&g0::inputs2, nullptr, const_cast<void*>(static_cast<const void*>(&g0::opdata2)), nullptr, 0, },
{ (TfLiteIntArray*)&g0::inputs3, (TfLiteIntArray*)&g0::outputs3, (TfLiteIntArray*)&g0::inputs3, nullptr, const_cast<void*>(static_cast<const void*>(&g0::opdata3)), nullptr, 0, },
};
#endif

used_operators_e used_ops[] =
{OP_FULLY_CONNECTED, OP_FULLY_CONNECTED, OP_FULLY_CONNECTED, OP_SOFTMAX, };


// Indices into tflTensors and tflNodes for subgraphs
const size_t tflTensors_subgraph_index[] = {0, 11, };
const size_t tflNodes_subgraph_index[] = {0, 4, };

// Input/output tensors
static const int in_tensor_indices[] = {
  0, 
};

static const int out_tensor_indices[] = {
  10, 
};


size_t current_subgraph_index = 0;

static void init_tflite_tensor(size_t i, TfLiteTensor *tensor) {
  tensor->type = kTfLiteFloat32;
  tensor->is_variable = false;

#if defined(EI_CLASSIFIER_ALLOCATION_HEAP)
  tensor->allocation_type = tensorData[i].allocation_type;
#else
  tensor->allocation_type = (tensor_arena <= tensorData[i].data && tensorData[i].data < tensor_arena + kTensorArenaSize) ? kTfLiteArenaRw : kTfLiteMmapRo;
#endif
  tensor->bytes = tensorData[i].bytes;
  tensor->dims = tensorData[i].dims;

#if defined(EI_CLASSIFIER_ALLOCATION_HEAP)
  if(tensor->allocation_type == kTfLiteArenaRw){
    uint8_t* start = (uint8_t*) ((uintptr_t)tensorData[i].data + (uintptr_t) tensor_arena);

    tensor->data.data =  start;
  }
  else {
      tensor->data.data = tensorData[i].data;
  }
#else
  tensor->data.data = tensorData[i].data;
#endif // EI_CLASSIFIER_ALLOCATION_HEAP
  tensor->quantization.type = kTfLiteNoQuantization;

}

static void init_tflite_eval_tensor(int i, TfLiteEvalTensor *tensor) {

  tensor->type = kTfLiteFloat32;

  tensor->dims = tensorData[i].dims;

#if defined(EI_CLASSIFIER_ALLOCATION_HEAP)
  auto allocation_type = tensorData[i].allocation_type;
  if(allocation_type == kTfLiteArenaRw) {
    uint8_t* start = (uint8_t*) ((uintptr_t)tensorData[i].data + (uintptr_t) tensor_arena);

    tensor->data.data =  start;
  }
  else {
    tensor->data.data = tensorData[i].data;
  }
#else
  tensor->data.data = tensorData[i].data;
#endif // EI_CLASSIFIER_ALLOCATION_HEAP
}

static void* overflow_buffers[EI_MAX_OVERFLOW_BUFFER_COUNT];
static size_t overflow_buffers_ix = 0;
static void * AllocatePersistentBufferImpl(struct TfLiteContext* ctx,
                                       size_t bytes) {
  void *ptr;
  uint32_t align_bytes = (bytes % 16) ? 16 - (bytes % 16) : 0;

  if (current_location - (bytes + align_bytes) < tensor_boundary) {
    if (overflow_buffers_ix > EI_MAX_OVERFLOW_BUFFER_COUNT - 1) {
      ei_printf("ERR: Failed to allocate persistent buffer of size %d, does not fit in tensor arena and reached EI_MAX_OVERFLOW_BUFFER_COUNT\n",
        (int)bytes);
      return NULL;
    }

    // OK, this will look super weird, but.... we have CMSIS-NN buffers which
    // we cannot calculate beforehand easily.
    ptr = ei_calloc(bytes, 1);
    if (ptr == NULL) {
      ei_printf("ERR: Failed to allocate persistent buffer of size %d\n", (int)bytes);
      return NULL;
    }
    overflow_buffers[overflow_buffers_ix++] = ptr;
    return ptr;
  }

  current_location -= bytes;

  // align to the left aligned boundary of 16 bytes
  current_location -= 15; // for alignment
  current_location += 16 - ((uintptr_t)(current_location) & 15);

  ptr = current_location;
  memset(ptr, 0, bytes);

  return ptr;
}

typedef struct {
  size_t bytes;
  void *ptr;
} scratch_buffer_t;

static scratch_buffer_t scratch_buffers[EI_MAX_SCRATCH_BUFFER_COUNT];
static size_t scratch_buffers_ix = 0;

static TfLiteStatus RequestScratchBufferInArenaImpl(struct TfLiteContext* ctx, size_t bytes,
                                                int* buffer_idx) {
  if (scratch_buffers_ix > EI_MAX_SCRATCH_BUFFER_COUNT - 1) {
    ei_printf("ERR: Failed to allocate scratch buffer of size %d, reached EI_MAX_SCRATCH_BUFFER_COUNT\n",
      (int)bytes);
    return kTfLiteError;
  }

  scratch_buffer_t b;
  b.bytes = bytes;

  b.ptr = AllocatePersistentBufferImpl(ctx, b.bytes);
  if (!b.ptr) {
    ei_printf("ERR: Failed to allocate scratch buffer of size %d\n",
      (int)bytes);
    return kTfLiteError;
  }

  scratch_buffers[scratch_buffers_ix] = b;
  *buffer_idx = scratch_buffers_ix;

  scratch_buffers_ix++;

  return kTfLiteOk;
}

static void* GetScratchBufferImpl(struct TfLiteContext* ctx, int buffer_idx) {
  if (buffer_idx > (int)scratch_buffers_ix) {
    return NULL;
  }
  return scratch_buffers[buffer_idx].ptr;
}

static const uint16_t TENSOR_IX_UNUSED = 0x7FFF;

static void ResetTensors() {
  for (size_t ix = 0; ix < MAX_TFL_TENSOR_COUNT; ix++) {
    tflTensors[ix].index = TENSOR_IX_UNUSED;
  }
  for (size_t ix = 0; ix < MAX_TFL_EVAL_COUNT; ix++) {
    tflEvalTensors[ix].index = TENSOR_IX_UNUSED;
  }
}

static TfLiteTensor* GetTensorImpl(const struct TfLiteContext* context,
                               int tensor_idx) {

  tensor_idx = tflTensors_subgraph_index[current_subgraph_index] + tensor_idx;

  for (size_t ix = 0; ix < MAX_TFL_TENSOR_COUNT; ix++) {
    // already used? OK!
    if (tflTensors[ix].index == tensor_idx) {
      return &tflTensors[ix].tensor;
    }
    // passed all the ones we've used, so end of the list?
    if (tflTensors[ix].index == TENSOR_IX_UNUSED) {
      // init the tensor
      init_tflite_tensor(tensor_idx, &tflTensors[ix].tensor);
      tflTensors[ix].index = tensor_idx;
      return &tflTensors[ix].tensor;
    }
  }

  ei_printf("ERR: GetTensor called beyond MAX_TFL_TENSOR_COUNT (%d)\n", MAX_TFL_TENSOR_COUNT);
  return nullptr;
}

static TfLiteEvalTensor* GetEvalTensorImpl(const struct TfLiteContext* context,
                                       int tensor_idx) {

  tensor_idx = tflTensors_subgraph_index[current_subgraph_index] + tensor_idx;

  for (size_t ix = 0; ix < MAX_TFL_EVAL_COUNT; ix++) {
    // already used? OK!
    if (tflEvalTensors[ix].index == tensor_idx) {
      return &tflEvalTensors[ix].tensor;
    }
    // passed all the ones we've used, so end of the list?
    if (tflEvalTensors[ix].index == TENSOR_IX_UNUSED) {
      // init the tensor
      init_tflite_eval_tensor(tensor_idx, &tflEvalTensors[ix].tensor);
      tflEvalTensors[ix].index = tensor_idx;
      return &tflEvalTensors[ix].tensor;
    }
  }

  ei_printf("ERR: GetTensor called beyond MAX_TFL_EVAL_COUNT (%d)\n", (int)MAX_TFL_EVAL_COUNT);
  return nullptr;
}

class EonMicroContext : public MicroContext {
 public:
 
  EonMicroContext(): MicroContext(nullptr, nullptr, nullptr) { }

  void* AllocatePersistentBuffer(size_t bytes) {
    return AllocatePersistentBufferImpl(nullptr, bytes);
  }

  TfLiteStatus RequestScratchBufferInArena(size_t bytes,
                                           int* buffer_index) {
  return RequestScratchBufferInArenaImpl(nullptr, bytes, buffer_index);
  }

  void* GetScratchBuffer(int buffer_index) {
    return GetScratchBufferImpl(nullptr, buffer_index);
  }
 
  TfLiteTensor* AllocateTempTfLiteTensor(int tensor_index) {
    return GetTensorImpl(nullptr, tensor_index);
  }

  void DeallocateTempTfLiteTensor(TfLiteTensor* tensor) {
    return;
  }

  bool IsAllTempTfLiteTensorDeallocated() {
    return true;
  }

  TfLiteEvalTensor* GetEvalTensor(int tensor_index) {
    return GetEvalTensorImpl(nullptr, tensor_index);
  }

};


} // namespace

TfLiteStatus tflite_learn_968595_6_init( void*(*alloc_fnc)(size_t,size_t) ) {
#ifdef EI_CLASSIFIER_ALLOCATION_HEAP
  tensor_arena = (uint8_t*) alloc_fnc(16, kTensorArenaSize);
  if (!tensor_arena) {
    ei_printf("ERR: failed to allocate tensor arena\n");
    return kTfLiteError;
  }
#else
  memset(tensor_arena, 0, kTensorArenaSize);
#endif
  tensor_boundary = tensor_arena;
  current_location = tensor_arena + kTensorArenaSize;

  EonMicroContext micro_context_;
  
  // Set microcontext as the context ptr
  ctx.impl_ = static_cast<void*>(&micro_context_);
  // Setup tflitecontext functions
  ctx.AllocatePersistentBuffer = &AllocatePersistentBufferImpl;
  ctx.RequestScratchBufferInArena = &RequestScratchBufferInArenaImpl;
  ctx.GetScratchBuffer = &GetScratchBufferImpl;
  ctx.GetTensor = &GetTensorImpl;
  ctx.GetEvalTensor = &GetEvalTensorImpl;
  ctx.ReportError = &MicroContextReportOpError;

  ctx.tensors_size = 11;
  for (size_t i = 0; i < 11; ++i) {
    TfLiteTensor tensor;
    init_tflite_tensor(i, &tensor);
    if (tensor.allocation_type == kTfLiteArenaRw) {
      auto data_end_ptr = (uint8_t*)tensor.data.data + tensorData[i].bytes;
      if (data_end_ptr > tensor_boundary) {
        tensor_boundary = data_end_ptr;
      }
    }
  }

  if (tensor_boundary > current_location /* end of arena size */) {
    ei_printf("ERR: tensor arena is too small, does not fit model - even without scratch buffers\n");
    return kTfLiteError;
  }

  registrations[OP_FULLY_CONNECTED] = Register_FULLY_CONNECTED();
  registrations[OP_SOFTMAX] = Register_SOFTMAX();

  for (size_t g = 0; g < 1; ++g) {
    current_subgraph_index = g;
    for(size_t i = tflNodes_subgraph_index[g]; i < tflNodes_subgraph_index[g+1]; ++i) {
      if (registrations[used_ops[i]].init) {
        tflNodes[i].user_data = registrations[used_ops[i]].init(&ctx, (const char*)tflNodes[i].builtin_data, 0);
      }
    }
  }
  current_subgraph_index = 0;

  for(size_t g = 0; g < 1; ++g) {
    current_subgraph_index = g;
    for(size_t i = tflNodes_subgraph_index[g]; i < tflNodes_subgraph_index[g+1]; ++i) {
      if (registrations[used_ops[i]].prepare) {
        ResetTensors();
        TfLiteStatus status = registrations[used_ops[i]].prepare(&ctx, &tflNodes[i]);
        if (status != kTfLiteOk) {
          return status;
        }
      }
    }
  }
  current_subgraph_index = 0;

  return kTfLiteOk;
}

TfLiteStatus tflite_learn_968595_6_input(int index, TfLiteTensor *tensor) {
  init_tflite_tensor(in_tensor_indices[index], tensor);
  return kTfLiteOk;
}

TfLiteStatus tflite_learn_968595_6_output(int index, TfLiteTensor *tensor) {
  init_tflite_tensor(out_tensor_indices[index], tensor);
  return kTfLiteOk;
}

TfLiteStatus tflite_learn_968595_6_invoke() {
  for (size_t i = 0; i < 4; ++i) {
    ResetTensors();

    TfLiteStatus status = registrations[used_ops[i]].invoke(&ctx, &tflNodes[i]);

#if EI_CLASSIFIER_PRINT_STATE
    ei_printf("layer %lu\n", i);
    ei_printf("    inputs:\n");
    for (size_t ix = 0; ix < tflNodes[i].inputs->size; ix++) {
      auto d = tensorData[tflNodes[i].inputs->data[ix]];

      size_t data_ptr = (size_t)d.data;

      if (d.allocation_type == kTfLiteArenaRw) {
        data_ptr = (size_t)tensor_arena + data_ptr;
      }

      if (d.type == TfLiteType::kTfLiteInt8) {
        int8_t* data = (int8_t*)data_ptr;
        ei_printf("        %lu (%zu bytes, ptr=%p, alloc_type=%d, type=%d): ", ix, d.bytes, data, (int)d.allocation_type, (int)d.type);
        for (size_t jx = 0; jx < d.bytes; jx++) {
          ei_printf("%d ", data[jx]);
        }
      }
      else {
        float* data = (float*)data_ptr;
        ei_printf("        %lu (%zu bytes, ptr=%p, alloc_type=%d, type=%d): ", ix, d.bytes, data, (int)d.allocation_type, (int)d.type);
        for (size_t jx = 0; jx < d.bytes / 4; jx++) {
          ei_printf("%f ", data[jx]);
        }
      }
      ei_printf("\n");
    }
    ei_printf("\n");

    ei_printf("    outputs:\n");
    for (size_t ix = 0; ix < tflNodes[i].outputs->size; ix++) {
      auto d = tensorData[tflNodes[i].outputs->data[ix]];

      size_t data_ptr = (size_t)d.data;

      if (d.allocation_type == kTfLiteArenaRw) {
        data_ptr = (size_t)tensor_arena + data_ptr;
      }

      if (d.type == TfLiteType::kTfLiteInt8) {
        int8_t* data = (int8_t*)data_ptr;
        ei_printf("        %lu (%zu bytes, ptr=%p, alloc_type=%d, type=%d): ", ix, d.bytes, data, (int)d.allocation_type, (int)d.type);
        for (size_t jx = 0; jx < d.bytes; jx++) {
          ei_printf("%d ", data[jx]);
        }
      }
      else {
        float* data = (float*)data_ptr;
        ei_printf("        %lu (%zu bytes, ptr=%p, alloc_type=%d, type=%d): ", ix, d.bytes, data, (int)d.allocation_type, (int)d.type);
        for (size_t jx = 0; jx < d.bytes / 4; jx++) {
          ei_printf("%f ", data[jx]);
        }
      }
      ei_printf("\n");
    }
    ei_printf("\n");
#endif // EI_CLASSIFIER_PRINT_STATE

    if (status != kTfLiteOk) {
      return status;
    }
  }
  return kTfLiteOk;
}

TfLiteStatus tflite_learn_968595_6_reset( void (*free_fnc)(void* ptr) ) {
#ifdef EI_CLASSIFIER_ALLOCATION_HEAP
  free_fnc(tensor_arena);
#endif

  // scratch buffers are allocated within the arena, so just reset the counter so memory can be reused
  scratch_buffers_ix = 0;

  // overflow buffers are on the heap, so free them first
  for (size_t ix = 0; ix < overflow_buffers_ix; ix++) {
    ei_free(overflow_buffers[ix]);
  }
  overflow_buffers_ix = 0;
  return kTfLiteOk;
}
